<?xml version="1.0"?>
<opencv_storage>
<cascade>
  <stageType>BOOST</stageType>
  <featureType>HAAR</featureType>
  <height>20</height>
  <width>20</width>
  <stageParams>
    <boostType>GAB</boostType>
    <minHitRate>9.9500000476837158e-001</minHitRate>
    <maxFalseAlarm>5.0000000000000000e-001</maxFalseAlarm>
    <weightTrimRate>9.4999999999999996e-001</weightTrimRate>
    <maxDepth>1</maxDepth>
    <maxWeakCount>100</maxWeakCount></stageParams>
  <featureParams>
    <maxCatCount>0</maxCatCount>
    <featSize>1</featSize>
    <mode>ALL</mode></featureParams>
  <stageNum>20</stageNum>
  <stages>
    <!-- stage 0 -->
    <_>
      <maxWeakCount>10</maxWeakCount>
      <stageThreshold>-1.0624706745147705e+000</stageThreshold>
      <weakClassifiers>
        <_>
          <internalNodes>
            0 -1 248 1.6697607934474945e-002</internalNodes>
          <leafValues>
            -4.4310128688812256e-001 6.7532289028167725e-001</leafValues></_>
        <_>
          <internalNodes>
            0 -1 916 5.9076300822198391e-003</internalNodes>
          <leafValues>
            -2.9719790816307068e-001 7.1835893392562866e-001</leafValues></_>
        <_>
          <internalNodes>
            0 -1 778 1.3258521445095539e-002</internalNodes>
          <leafValues>
            -2.3231951892375946e-001 6.9269955158233643e-001</leafValues></_>
        <_>
          <internalNodes>
            0 -1 53 -4.1073650121688843e-002</internalNodes>
          <leafValues>
            6.7109352350234985e-001 -2.0834845304489136e-001</leafValues></_>
        <_>
          <internalNodes>
            0 -1 116 8.2350261509418488e-003</internalNodes>
          <leafValues>
            -1.9501355290412903e-001 6.5734118223190308e-001</leafValues></_>
        <_>
          <internalNodes>
            0 -1 94 2.9549039900302887e-002</internalNodes>
          <leafValues>
            -2.4195683002471924e-001 4.1440257430076599e-001</leafValues></_>
        <_>
          <internalNodes>
            0 -1 921 -2.8994926251471043e-003</internalNodes>
          <leafValues>
            5.5744379758834839e-001 -1.9756911695003510e-001</leafValues></_>
        <_>
          <internalNodes>
            0 -1 213 -1.4429010450839996e-002</internalNodes>
          <leafValues>
            6.0017657279968262e-001 -1.5122851729393005e-001</leafValues></_>
        <_>
          <internalNodes>
            0 -1 477 1.9473697990179062e-002</internalNodes>
          <leafValues>
            -2.9790329933166504e-001 3.4496080875396729e-001</leafValues></_>
        <_>
          <internalNodes>
            0 -1 640 -1.3541263528168201e-002</internalNodes>
          <leafValues>
            2.7881708741188049e-001 -3.3363354206085205e-001</leafValues></_></weakClassifiers></_>
    <!-- stage 1 -->
    <_>
      <maxWeakCount>17</maxWeakCount>
      <stageThreshold>-1.0992956161499023e+000</stageThreshold>
      <weakClassifiers>
        <_>
          <internalNodes>
            0 -1 867 -4.4634053483605385e-003</internalNodes>
          <leafValues>
            7.5004887580871582e-001 -7.8003117814660072e-003</leafValues></_>
        <_>
          <internalNodes>
            0 -1 23 -3.6565724760293961e-002</internalNodes>
          <leafValues>
            6.0705339908599854e-001 -2.2244697809219360e-001</leafValues></_>
        <_>
          <internalNodes>
            0 -1 248 1.6388107836246490e-001</internalNodes>
          <leafValues>
            -4.4536834955215454e-001 3.0338534712791443e-001</leafValues></_>
        <_>
          <internalNodes>
            0 -1 83 -4.1693974286317825e-002</internalNodes>
          <leafValues>
            5.6099444627761841e-001 -2.1121114492416382e-001</leafValues></_>
        <_>
          <internalNodes>
            0 -1 54 3.0241325497627258e-002</internalNodes>
          <leafValues>
            -1.9374375045299530e-001 6.0891097784042358e-001</leafValues></_>
        <_>
          <internalNodes>
            0 -1 53 -3.5548254847526550e-002</internalNodes>
          <leafValues>
            6.0981851816177368e-001 -2.0092804729938507e-001</leafValues></_>
        <_>
          <internalNodes>
            0 -1 777 -1.3649305328726768e-002</internalNodes>
          <leafValues>
            5.4663610458374023e-001 -1.4349254965782166e-001</leafValues></_>
        <_>
          <internalNodes>
            0 -1 171 5.6158892810344696e-002</internalNodes>
          <leafValues>
            -2.7452522516250610e-001 2.9744151234626770e-001</leafValues></_>
        <_>
          <internalNodes>
            0 -1 349 -1.6501463949680328e-002</internalNodes>
          <leafValues>
            6.1899727582931519e-001 -1.3619868457317352e-001</leafValues></_>
        <_>
          <internalNodes>
            0 -1 70 -6.0114599764347076e-003</internalNodes>
          <leafValues>
            4.9435454607009888e-001 -1.6223917901515961e-001</leafValues></_>
        <_>
          <internalNodes>
            0 -1 560 6.8049356341362000e-003</internalNodes>
          <leafValues>
            -3.5463482141494751e-001 2.4744220077991486e-001</leafValues></_>
        <_>
          <internalNodes>
            0 -1 927 -2.1614707075059414e-003</internalNodes>
          <leafValues>
            5.6284534931182861e-001 -1.4995235204696655e-001</leafValues></_>
        <_>
          <internalNodes>
            0 -1 77 3.5564317367970943e-003</internalNodes>
          <leafValues>
            -1.5437801182270050e-001 4.7681063413619995e-001</leafValues></_>
        <_>
          <internalNodes>
            0 -1 895 -1.5814539045095444e-002</internalNodes>
          <leafValues>
            5.9008699655532837e-001 -1.1443614214658737e-001</leafValues></_>
        <_>
          <internalNodes>
            0 -1 333 1.7700681462883949e-002</internalNodes>
          <leafValues>
            -8.4651239216327667e-002 7.1237581968307495e-001</leafValues></_>
        <_>
          <internalNodes>
            0 -1 882 -1.9352678209543228e-002</internalNodes>
          <leafValues>
            7.0108085870742798e-001 -7.9258471727371216e-002</leafValues></_>
        <_>
          <internalNodes>
            0 -1 480 1.2755511328577995e-002</internalNodes>
          <leafValues>
            -3.2527375221252441e-001 2.0157712697982788e-001</leafValues></_></weakClassifiers></_>
    <!-- stage 2 -->
    <_>
      <maxWeakCount>21</maxWeakCount>
      <stageThreshold>-9.4777905941009521e-001</stageThreshold>
      <weakClassifiers>
        <_>
          <internalNodes>
            0 -1 917 7.5761955231428146e-003</internalNodes>
          <leafValues>
            4.2264152318239212e-002 8.3162790536880493e-001</leafValues></_>
        <_>
          <internalNodes>
            0 -1 40 -4.5047096908092499e-002</internalNodes>
          <leafValues>
            6.9542050361633301e-001 -1.6515870392322540e-001</leafValues></_>
        <_>
          <internalNodes>
            0 -1 778 1.0869056917726994e-002</internalNodes>
          <leafValues>
            -1.9149191677570343e-001 4.6025323867797852e-001</leafValues></_>
        <_>
          <internalNodes>
            0 -1 56 1.1417930573225021e-001</internalNodes>
          <leafValues>
            -2.8804731369018555e-001 3.8022071123123169e-001</leafValues></_>
        <_>
          <internalNodes>
            0 -1 475 4.5853570103645325e-002</internalNodes>
          <leafValues>
            -2.4078094959259033e-001 3.5067254304885864e-001</leafValues></_>
        <_>
          <internalNodes>
            0 -1 938 -1.6462456434965134e-002</internalNodes>
          <leafValues>
            5.8353483676910400e-001 -1.6937696933746338e-001</leafValues></_>
        <_>
          <internalNodes>
            0 -1 116 1.1796688660979271e-002</internalNodes>
          <leafValues>
            -1.5398943424224854e-001 6.1092108488082886e-001</leafValues></_>
        <_>
          <internalNodes>
            0 -1 286 3.4831989556550980e-002</internalNodes>
          <leafValues>
            -1.5155860781669617e-001 4.7591504454612732e-001</leafValues></_>
        <_>
          <internalNodes>
            0 -1 897 -1.1442271992564201e-002</internalNodes>
          <leafValues>
            5.2585238218307495e-001 -1.3080388307571411e-001</leafValues></_>
        <_>
          <internalNodes>
            0 -1 381 6.1625957489013672e-002</internalNodes>
          <leafValues>
            -2.1645751595497131e-001 2.7971264719963074e-001</leafValues></_>
        <_>
          <internalNodes>
            0 -1 798 -4.6820629388093948e-002</internalNodes>
          <leafValues>
            6.0517406463623047e-001 -1.0115398466587067e-001</leafValues></_>
        <_>
          <internalNodes>
            0 -1 326 -1.1055190116167068e-002</internalNodes>
          <leafValues>
            3.9781382679939270e-001 -1.4787283539772034e-001</leafValues></_>
        <_>
          <internalNodes>
            0 -1 785 2.6190523058176041e-002</internalNodes>
          <leafValues>
            -8.3392955362796783e-002 6.9737166166305542e-001</leafValues></_>
        <_>
          <internalNodes>
            0 -1 829 -1.4358058571815491e-002</internalNodes>
          <leafValues>
            4.5573467016220093e-001 -1.2243675440549850e-001</leafValues></_>
        <_>
          <internalNodes>
            0 -1 464 1.3820499181747437e-002</internalNodes>
          <leafValues>
            -2.7760210633277893e-001 2.0563569664955139e-001</leafValues></_>
        <_>
          <internalNodes>
            0 -1 333 -1.9962627440690994e-002</internalNodes>
          <leafValues>
            6.0842829942703247e-001 -9.9684864282608032e-002</leafValues></_>
        <_>
          <internalNodes>
            0 -1 41 5.3098257631063461e-002</internalNodes>
          <leafValues>
            -1.4494800567626953e-001 4.2191362380981445e-001</leafValues></_>
        <_>
          <internalNodes>
            0 -1 111 -1.3555044308304787e-002</internalNodes>
          <leafValues>
            4.1785478591918945e-001 -1.1304982751607895e-001</leafValues></_>
        <_>
          <internalNodes>
            0 -1 901 -5.4945977171882987e-004</internalNodes>
          <leafValues>
            -3.7536680698394775e-001 1.4745722711086273e-001</leafValues></_>
        <_>
          <internalNodes>
            0 -1 901 4.6535790897905827e-004</internalNodes>
          <leafValues>
            1.2820836901664734e-001 -3.9282086491584778e-001</leafValues></_>
        <_>
          <internalNodes>
            0 -1 60 -5.7123806327581406e-003</internalNodes>
          <leafValues>
            3.2398584485054016e-001 -1.5031258761882782e-001</leafValues></_></weakClassifiers></_>
    <!-- stage 3 -->
    <_>
      <maxWeakCount>32</maxWeakCount>
      <stageThreshold>-1.0419512987136841e+000</stageThreshold>
      <weakClassifiers>
        <_>
          <internalNodes>
            0 -1 916 1.0502450168132782e-002</internalNodes>
          <leafValues>
            1.3052175939083099e-001 8.3782285451889038e-001</leafValues></_>
        <_>
          <internalNodes>
            0 -1 231 3.0382152646780014e-002</internalNodes>
          <leafValues>
            -1.7908297479152679e-001 6.1258631944656372e-001</leafValues></_>
        <_>
          <internalNodes>
            0 -1 826 -2.9337497428059578e-002</internalNodes>
          <leafValues>
            5.4410773515701294e-001 -1.1865358799695969e-001</leafValues></_>
        <_>
          <internalNodes>
            0 -1 564 5.5857181549072266e-002</internalNodes>
          <leafValues>
            -3.5238799452781677e-001 2.4270971119403839e-001</leafValues></_>
        <_>
          <internalNodes>
            0 -1 59 -6.0934461653232574e-003</internalNodes>
          <leafValues>
            4.1553986072540283e-001 -1.4351293444633484e-001</leafValues></_>
        <_>
          <internalNodes>
            0 -1 51 7.2094574570655823e-003</internalNodes>
          <leafValues>
            -9.9481552839279175e-002 5.5114275217056274e-001</leafValues></_>
        <_>
          <internalNodes>
            0 -1 151 -3.7199858343228698e-004</internalNodes>
          <leafValues>
            -3.5906475782394409e-001 1.5780220925807953e-001</leafValues></_>
        <_>
          <internalNodes>
            0 -1 312 1.8158480525016785e-002</internalNodes>
          <leafValues>
            -2.9584863781929016e-001 1.8240177631378174e-001</leafValues></_>
        <_>
          <internalNodes>
            0 -1 284 -2.2722162306308746e-002</internalNodes>
          <leafValues>
            6.1927264928817749e-001 -8.3718173205852509e-002</leafValues></_>
        <_>
          <internalNodes>
            0 -1 332 -1.8473012372851372e-002</internalNodes>
          <leafValues>
            5.0454837083816528e-001 -1.0715303570032120e-001</leafValues></_>
        <_>
          <internalNodes>
            0 -1 151 6.9292646367102861e-004</internalNodes>
          <leafValues>
            1.4531958103179932e-001 -3.6798578500747681e-001</leafValues></_>
        <_>
          <internalNodes>
            0 -1 829 3.0162516981363297e-002</internalNodes>
          <leafValues>
            -6.8500466644763947e-002 7.5401383638381958e-001</leafValues></_>
        <_>
          <internalNodes>
            0 -1 829 -1.7593607306480408e-002</internalNodes>
          <leafValues>
            4.6251210570335388e-001 -9.6141427755355835e-002</leafValues></_>
        <_>
          <internalNodes>
            0 -1 328 -6.9028977304697037e-003</internalNodes>
          <leafValues>
            5.1374471187591553e-001 -8.7163820862770081e-002</leafValues></_>
        <_>
          <internalNodes>
            0 -1 45 4.2972899973392487e-002</internalNodes>
          <leafValues>
            -1.0351134836673737e-001 4.0025207400321960e-001</leafValues></_>
        <_>
          <internalNodes>
            0 -1 182 6.7980987951159477e-003</internalNodes>
          <leafValues>
            -3.2539692521095276e-001 1.4381523430347443e-001</leafValues></_>
        <_>
          <internalNodes>
            0 -1 772 -3.7430741358548403e-003</internalNodes>
          <leafValues>
            4.7721624374389648e-001 -9.8716460168361664e-002</leafValues></_>
        <_>
          <internalNodes>
            0 -1 594 -3.3379517495632172e-002</internalNodes>
          <leafValues>
            1.9421871006488800e-001 -2.2607034444808960e-001</leafValues></_>
        <_>
          <internalNodes>
            0 -1 291 -1.2322425842285156e-002</internalNodes>
          <leafValues>
            3.6058774590492249e-001 -1.2677007913589478e-001</leafValues></_>
        <_>
          <internalNodes>
            0 -1 921 -3.7432839162647724e-003</internalNodes>
          <leafValues>
            4.4724363088607788e-001 -1.1814346164464951e-001</leafValues></_>
        <_>
          <internalNodes>
            0 -1 867 -2.8382900636643171e-003</internalNodes>
          <leafValues>
            2.3988381028175354e-001 -2.1939438581466675e-001</leafValues></_>
        <_>
          <internalNodes>
            0 -1 107 -3.5958676598966122e-003</internalNodes>
          <leafValues>
            4.1860747337341309e-001 -1.0017528384923935e-001</leafValues></_>
        <_>
          <internalNodes>
            0 -1 203 -6.0432013124227524e-003</internalNodes>
          <leafValues>
            -6.5556824207305908e-001 7.2333417832851410e-002</leafValues></_>
        <_>
          <internalNodes>
            0 -1 86 -2.6391439139842987e-002</internalNodes>
          <leafValues>
            3.7380680441856384e-001 -1.1203552037477493e-001</leafValues></_>
        <_>
          <internalNodes>
            0 -1 399 -1.6697313636541367e-002</internalNodes>
          <leafValues>
            5.1939076185226440e-001 -8.3317533135414124e-002</leafValues></_>
        <_>
          <internalNodes>
            0 -1 317 -1.7045188695192337e-002</internalNodes>
          <leafValues>
            1.9424806535243988e-001 -2.1979403495788574e-001</leafValues></_>
        <_>
          <internalNodes>
            0 -1 850 9.6949804574251175e-003</internalNodes>
          <leafValues>
            -6.8826973438262939e-002 6.0719221830368042e-001</leafValues></_>
        <_>
          <internalNodes>
            0 -1 850 -9.3336552381515503e-003</internalNodes>
          <leafValues>
            5.6358766555786133e-001 -7.8264936804771423e-002</leafValues></_>
        <_>
          <internalNodes>
            0 -1 894 -4.1728178039193153e-003</internalNodes>
          <leafValues>
            -4.4714164733886719e-001 9.4593659043312073e-002</leafValues></_>
        <_>
          <internalNodes>
            0 -1 892 -3.5002236254513264e-003</internalNodes>
          <leafValues>
            -5.0238436460494995e-001 7.7395379543304443e-002</leafValues></_>
        <_>
          <internalNodes>
            0 -1 90 -4.1300040902569890e-004</internalNodes>
          <leafValues>
            -3.2159832119941711e-001 1.2680691480636597e-001</leafValues></_>
        <_>
          <internalNodes>
            0 -1 90 3.6515621468424797e-004</internalNodes>
          <leafValues>
            1.3768997788429260e-001 -2.9201868176460266e-001</leafValues></_></weakClassifiers></_>
    <!-- stage 4 -->
    <_>
      <maxWeakCount>34</maxWeakCount>
      <stageThreshold>-9.9944615364074707e-001</stageThreshold>
      <weakClassifiers>
        <_>
          <internalNodes>
            0 -1 33 -2.5658264756202698e-002</internalNodes>
          <leafValues>
            7.7513033151626587e-001 1.2152216583490372e-001</leafValues></_>
        <_>
          <internalNodes>
            0 -1 924 8.7959431111812592e-003</internalNodes>
          <leafValues>
            -1.3561309874057770e-001 6.1299830675125122e-001</leafValues></_>
        <_>
          <internalNodes>
            0 -1 119 -1.4852409251034260e-002</internalNodes>
          <leafValues>
            4.6881103515625000e-001 -1.3380178809165955e-001</leafValues></_>
        <_>
          <internalNodes>
            0 -1 67 -4.0734969079494476e-003</internalNodes>
          <leafValues>
            4.6570187807083130e-001 -1.5579898655414581e-001</leafValues></_>
        <_>
          <internalNodes>
            0 -1 586 -8.3759725093841553e-003</internalNodes>
          <leafValues>
            5.6478786468505859e-001 -1.1353296786546707e-001</leafValues></_>
        <_>
          <internalNodes>
            0 -1 757 -7.9418160021305084e-003</internalNodes>
          <leafValues>
            1.5284511446952820e-001 -3.8259777426719666e-001</leafValues></_>
        <_>
          <internalNodes>
            0 -1 854 1.2761236168444157e-002</internalNodes>
          <leafValues>
            -1.0203953087329865e-001 5.2530270814895630e-001</leafValues></_>
        <_>
          <internalNodes>
            0 -1 845 -7.5785769149661064e-003</internalNodes>
          <leafValues>
            3.9060086011886597e-001 -1.3589714467525482e-001</leafValues></_>
        <_>
          <internalNodes>
            0 -1 345 -6.1817327514290810e-003</internalNodes>
          <leafValues>
            6.4283752441406250e-001 -6.9957822561264038e-002</leafValues></_>
        <_>
          <internalNodes>
            0 -1 108 2.6344652287662029e-003</internalNodes>
          <leafValues>
            -8.7503291666507721e-002 4.9451649188995361e-001</leafValues></_>
        <_>
          <internalNodes>
            0 -1 302 1.3701828196644783e-002</internalNodes>
          <leafValues>
            -2.5744834542274475e-001 1.8469761312007904e-001</leafValues></_>
        <_>
          <internalNodes>
            0 -1 144 -1.1053931713104248e-001</internalNodes>
          <leafValues>
            4.7935864329338074e-001 -1.0409268736839294e-001</leafValues></_>
        <_>
          <internalNodes>
            0 -1 272 1.7518118023872375e-002</internalNodes>
          <leafValues>
            -9.4244793057441711e-002 4.8385542631149292e-001</leafValues></_>
        <_>
          <internalNodes>
            0 -1 829 1.9790481775999069e-002</internalNodes>
          <leafValues>
            -7.1343868970870972e-002 5.6478869915008545e-001</leafValues></_>
        <_>
          <internalNodes>
            0 -1 829 -2.7494410052895546e-002</internalNodes>
          <leafValues>
            6.5146845579147339e-001 -6.6397987306118011e-002</leafValues></_>
        <_>
          <internalNodes>
            0 -1 363 -1.7930181697010994e-002</internalNodes>
          <leafValues>
            5.9970134496688843e-001 -6.8389654159545898e-002</leafValues></_>
        <_>
          <internalNodes>
            0 -1 335 -1.5712480992078781e-002</internalNodes>
          <leafValues>
            4.7728824615478516e-001 -8.1441715359687805e-002</leafValues></_>
        <_>
          <internalNodes>
            0 -1 360 2.7506895363330841e-002</internalNodes>
          <leafValues>
            -2.6584586501121521e-001 1.7331033945083618e-001</leafValues></_>
        <_>
          <internalNodes>
            0 -1 402 6.6385846585035324e-003</internalNodes>
          <leafValues>
            -8.7890088558197021e-002 4.5735287666320801e-001</leafValues></_>
        <_>
          <internalNodes>
            0 -1 682 -4.0247337892651558e-003</internalNodes>
          <leafValues>
            1.7428480088710785e-001 -2.3787777125835419e-001</leafValues></_>
        <_>
          <internalNodes>
            0 -1 113 6.1552459374070168e-003</internalNodes>
          <leafValues>
            -1.1371586471796036e-001 3.8995733857154846e-001</leafValues></_>
        <_>
          <internalNodes>
            0 -1 27 -3.9705415838398039e-004</internalNodes>
          <leafValues>
            -3.1567397713661194e-001 1.3492146134376526e-001</leafValues></_>
        <_>
          <internalNodes>
            0 -1 240 6.4910044893622398e-003</internalNodes>
          <leafValues>
            -9.9002711474895477e-002 4.0567281842231750e-001</leafValues></_>
        <_>
          <internalNodes>
            0 -1 190 -1.6082124784588814e-003</internalNodes>
          <leafValues>
            -4.4470185041427612e-001 9.3182571232318878e-002</leafValues></_>
        <_>
          <internalNodes>
            0 -1 196 -1.6019183676689863e-003</internalNodes>
          <leafValues>
            -4.1171321272850037e-001 9.4473093748092651e-002</leafValues></_>
        <_>
          <internalNodes>
            0 -1 67 2.7941428124904633e-003</internalNodes>
          <leafValues>
            -1.0382253676652908e-001 4.0849158167839050e-001</leafValues></_>
        <_>
          <internalNodes>
            0 -1 487 1.2814600951969624e-002</internalNodes>
          <leafValues>
            -1.7719644308090210e-001 2.1889708936214447e-001</leafValues></_>
        <_>
          <internalNodes>
            0 -1 936 -2.5356862694025040e-002</internalNodes>
          <leafValues>
            7.0260035991668701e-001 -5.4273109883069992e-002</leafValues></_>
        <_>
          <internalNodes>
            0 -1 936 1.7958793789148331e-002</internalNodes>
          <leafValues>
            -7.1729488670825958e-002 5.6895291805267334e-001</leafValues></_>
        <_>
          <internalNodes>
            0 -1 447 -2.4752920493483543e-002</internalNodes>
          <leafValues>
            1.5795394778251648e-001 -2.5392585992813110e-001</leafValues></_>
        <_>
          <internalNodes>
            0 -1 125 -4.4573680497705936e-003</internalNodes>
          <leafValues>
            3.2163065671920776e-001 -1.1714120209217072e-001</leafValues></_>
        <_>
          <internalNodes>
            0 -1 161 8.4698963910341263e-003</internalNodes>
          <leafValues>
            -8.3145536482334137e-002 4.5963093638420105e-001</leafValues></_>
        <_>
          <internalNodes>
            0 -1 323 2.8540827333927155e-002</internalNodes>
          <leafValues>
            -1.6321183741092682e-001 2.2439244389533997e-001</leafValues></_>
        <_>
          <internalNodes>
            0 -1 832 2.0611984655261040e-002</internalNodes>
          <leafValues>
            -7.2964608669281006e-002 5.0827312469482422e-001</leafValues></_></weakClassifiers></_>
    <!-- stage 5 -->
    <_>
      <maxWeakCount>37</maxWeakCount>
      <stageThreshold>-9.4296872615814209e-001</stageThreshold>
      <weakClassifiers>
        <_>
          <internalNodes>
            0 -1 790 2.6454018428921700e-002</internalNodes>
          <leafValues>
            7.5098812580108643e-002 6.8529528379440308e-001</leafValues></_>
        <_>
          <internalNodes>
            0 -1 234 -1.1318893171846867e-002</internalNodes>
          <leafValues>
            4.6784746646881104e-001 -1.8686644732952118e-001</leafValues></_>
        <_>
          <internalNodes>
            0 -1 157 -3.1084153801202774e-002</internalNodes>
          <leafValues>
            5.0961524248123169e-001 -1.3085447251796722e-001</leafValues></_>
        <_>
          <internalNodes>
            0 -1 606 -7.4969220440834761e-004</internalNodes>
          <leafValues>
            2.4373172223567963e-001 -2.7860999107360840e-001</leafValues></_>
        <_>
          <internalNodes>
            0 -1 577 -4.3891500681638718e-003</internalNodes>
          <leafValues>
            1.6416408121585846e-001 -3.7103471159934998e-001</leafValues></_>
        <_>
          <internalNodes>
            0 -1 332 -1.4037095010280609e-002</internalNodes>
          <leafValues>
            4.0799438953399658e-001 -1.2567517161369324e-001</leafValues></_>
        <_>
          <internalNodes>
            0 -1 691 3.8131971377879381e-003</internalNodes>
          <leafValues>
            -9.8749421536922455e-002 5.3364551067352295e-001</leafValues></_>
        <_>
          <internalNodes>
            0 -1 500 7.4488157406449318e-003</internalNodes>
          <leafValues>
            -1.1763975769281387e-001 4.0550911426544189e-001</leafValues></_>
        <_>
          <internalNodes>
            0 -1 585 -4.5196590945124626e-003</internalNodes>
          <leafValues>
            3.4910801053047180e-001 -1.1371079087257385e-001</leafValues></_>
        <_>
          <internalNodes>
            0 -1 863 -1.9255178049206734e-003</internalNodes>
          <leafValues>
            2.6589128375053406e-001 -1.5288774669170380e-001</leafValues></_>
        <_>
          <internalNodes>
            0 -1 843 9.9560124799609184e-003</internalNodes>
          <leafValues>
            -8.3288647234439850e-002 4.8281919956207275e-001</leafValues></_>
        <_>
          <internalNodes>
            0 -1 120 1.2889198027551174e-002</internalNodes>
          <leafValues>
            -1.1873385310173035e-001 3.7637597322463989e-001</leafValues></_>
        <_>
          <internalNodes>
            0 -1 46 -4.0153525769710541e-002</internalNodes>
          <leafValues>
            3.1995415687561035e-001 -1.3369543850421906e-001</leafValues></_>
        <_>
          <internalNodes>
            0 -1 666 -4.1014412418007851e-003</internalNodes>
          <leafValues>
            3.2381218671798706e-001 -1.2278134375810623e-001</leafValues></_>
        <_>
          <internalNodes>
            0 -1 937 2.1321278065443039e-002</internalNodes>
          <leafValues>
            -7.4065499007701874e-002 5.2959203720092773e-001</leafValues></_>
        <_>
          <internalNodes>
            0 -1 766 7.0936023257672787e-003</internalNodes>
          <leafValues>
            -1.6515544056892395e-001 2.2587046027183533e-001</leafValues></_>
        <_>
          <internalNodes>
            0 -1 530 2.3620750755071640e-002</internalNodes>
          <leafValues>
            -1.8424692749977112e-001 2.0761534571647644e-001</leafValues></_>
        <_>
          <internalNodes>
            0 -1 472 1.0048302821815014e-002</internalNodes>
          <leafValues>
            -2.6808276772499084e-001 1.3890928030014038e-001</leafValues></_>
        <_>
          <internalNodes>
            0 -1 658 7.4208485893905163e-003</internalNodes>
          <leafValues>
            6.0642570257186890e-002 -5.9790664911270142e-001</leafValues></_>
        <_>
          <internalNodes>
            0 -1 223 6.8518649786710739e-003</internalNodes>
          <leafValues>
            -1.1740899831056595e-001 3.5075128078460693e-001</leafValues></_>
        <_>
          <internalNodes>
            0 -1 805 4.6262200921773911e-003</internalNodes>
          <leafValues>
            6.7710518836975098e-002 -5.3453683853149414e-001</leafValues></_>
        <_>
          <internalNodes>
            0 -1 338 -3.1504279468208551e-003</internalNodes>
          <leafValues>
            2.4142001569271088e-001 -1.3938979804515839e-001</leafValues></_>
        <_>
          <internalNodes>
            0 -1 610 -7.4449307285249233e-003</internalNodes>
          <leafValues>
            1.4111168682575226e-001 -2.4632953107357025e-001</leafValues></_>
        <_>
          <internalNodes>
            0 -1 916 -7.1619055233895779e-003</internalNodes>
          <leafValues>
            3.9082694053649902e-001 -8.6300455033779144e-002</leafValues></_>
        <_>
          <internalNodes>
            0 -1 295 -8.1184394657611847e-003</internalNodes>
          <leafValues>
            2.4690754711627960e-001 -1.3401447236537933e-001</leafValues></_>
        <_>
          <internalNodes>
            0 -1 410 2.5648852810263634e-002</internalNodes>
          <leafValues>
            -7.2336740791797638e-002 5.8486354351043701e-001</leafValues></_>
        <_>
          <internalNodes>
            0 -1 281 -9.4404630362987518e-003</internalNodes>
          <leafValues>
            3.4296631813049316e-001 -1.0121049731969833e-001</leafValues></_>
        <_>
          <internalNodes>
            0 -1 150 -1.0295266984030604e-003</internalNodes>
          <leafValues>
            -3.6103662848472595e-001 1.0540974885225296e-001</leafValues></_>
        <_>
          <internalNodes>
            0 -1 868 -2.5722668506205082e-003</internalNodes>
          <leafValues>
            1.5764841437339783e-001 -2.0211775600910187e-001</leafValues></_>
        <_>
          <internalNodes>
            0 -1 292 2.1102475002408028e-002</internalNodes>
          <leafValues>
            -1.0806615650653839e-001 3.0392861366271973e-001</leafValues></_>
        <_>
          <internalNodes>
            0 -1 784 1.3301085680723190e-002</internalNodes>
          <leafValues>
            -9.0783566236495972e-002 3.7487244606018066e-001</leafValues></_>
        <_>
          <internalNodes>
            0 -1 67 -2.8267735615372658e-003</internalNodes>
          <leafValues>
            2.9917931556701660e-001 -1.1451635509729385e-001</leafValues></_>
        <_>
          <internalNodes>
            0 -1 139 -4.3031945824623108e-003</internalNodes>
          <leafValues>
            2.4794483184814453e-001 -1.3940504193305969e-001</leafValues></_>
        <_>
          <internalNodes>
            0 -1 533 2.7637679129838943e-002</internalNodes>
          <leafValues>
            -2.2357092797756195e-001 1.5490691363811493e-001</leafValues></_>
        <_>
          <internalNodes>
            0 -1 314 1.1400131508708000e-002</internalNodes>
          <leafValues>
            6.9338262081146240e-002 -5.2093631029129028e-001</leafValues></_>
        <_>
          <internalNodes>
            0 -1 113 -9.4501432031393051e-003</internalNodes>
          <leafValues>
            4.4922959804534912e-001 -8.0244392156600952e-002</leafValues></_>
        <_>
          <internalNodes>
            0 -1 115 5.3173201158642769e-003</internalNodes>
          <leafValues>
            -1.2611038982868195e-001 3.4989839792251587e-001</leafValues></_></weakClassifiers></_>
    <!-- stage 6 -->
    <_>
      <maxWeakCount>46</maxWeakCount>
      <stageThreshold>-8.7074863910675049e-001</stageThreshold>
      <weakClassifiers>
        <_>
          <internalNodes>
            0 -1 21 -6.2444321811199188e-002</internalNodes>
          <leafValues>
            7.1698111295700073e-001 1.1810411512851715e-001</leafValues></_>
        <_>
          <internalNodes>
            0 -1 790 5.7899881154298782e-002</internalNodes>
          <leafValues>
            -1.3308764994144440e-001 5.2972924709320068e-001</leafValues></_>
        <_>
          <internalNodes>
            0 -1 232 -1.3456506654620171e-002</internalNodes>
          <leafValues>
            3.4102481603622437e-001 -1.5679648518562317e-001</leafValues></_>
        <_>
          <internalNodes>
            0 -1 516 3.0875813215970993e-002</internalNodes>
          <leafValues>
            -2.6437339186668396e-001 1.4307668805122375e-001</leafValues></_>
        <_>
          <internalNodes>
            0 -1 824 3.6523587186820805e-004</internalNodes>
          <leafValues>
            1.2722323834896088e-001 -3.1345856189727783e-001</leafValues></_>
        <_>
          <internalNodes>
            0 -1 824 -4.8861419782042503e-004</internalNodes>
          <leafValues>
            -3.2957041263580322e-001 1.3493616878986359e-001</leafValues></_>
        <_>
          <internalNodes>
            0 -1 712 -2.8829569928348064e-003</internalNodes>
          <leafValues>
            3.5407215356826782e-001 -1.1891631782054901e-001</leafValues></_>
        <_>
          <internalNodes>
            0 -1 43 -9.5070209354162216e-003</internalNodes>
          <leafValues>
            3.3702442049980164e-001 -1.1757614463567734e-001</leafValues></_>
        <_>
          <internalNodes>
            0 -1 113 4.6474095433950424e-003</internalNodes>
          <leafValues>
            -1.2384652346372604e-001 2.7419131994247437e-001</leafValues></_>
        <_>
          <internalNodes>
            0 -1 76 3.4098485484719276e-003</internalNodes>
          <leafValues>
            -9.3674957752227783e-002 3.7765315175056458e-001</leafValues></_>
        <_>
          <internalNodes>
            0 -1 358 -1.4889983460307121e-002</internalNodes>
          <leafValues>
            5.0896334648132324e-001 -6.5051272511482239e-002</leafValues></_>
        <_>
          <internalNodes>
            0 -1 895 -1.6385223716497421e-002</internalNodes>
          <leafValues>
            3.7269103527069092e-001 -8.4844693541526794e-002</leafValues></_>
        <_>
          <internalNodes>
            0 -1 261 2.2922898642718792e-003</internalNodes>
          <leafValues>
            9.9566787481307983e-002 -3.7271979451179504e-001</leafValues></_>
        <_>
          <internalNodes>
            0 -1 463 1.7067030072212219e-002</internalNodes>
          <leafValues>
            -2.4050445854663849e-001 1.4812204241752625e-001</leafValues></_>
        <_>
          <internalNodes>
            0 -1 936 -1.8867533653974533e-002</internalNodes>
          <leafValues>
            4.5811814069747925e-001 -8.0902405083179474e-002</leafValues></_>
        <_>
          <internalNodes>
            0 -1 387 -1.4088561758399010e-002</internalNodes>
          <leafValues>
            -6.6399329900741577e-001 5.8794070035219193e-002</leafValues></_>
        <_>
          <internalNodes>
            0 -1 905 2.3482542484998703e-002</internalNodes>
          <leafValues>
            -6.1108209192752838e-002 5.9731131792068481e-001</leafValues></_>
        <_>
          <internalNodes>
            0 -1 923 -4.7377375885844231e-003</internalNodes>
          <leafValues>
            -4.1759082674980164e-001 8.4781341254711151e-002</leafValues></_>
        <_>
          <internalNodes>
            0 -1 306 4.8500550910830498e-003</internalNodes>
          <leafValues>
            6.7379325628280640e-002 -5.0225830078125000e-001</leafValues></_>
        <_>
          <internalNodes>
            0 -1 175 4.6229197323555127e-005</internalNodes>
          <leafValues>
            -2.0672707259654999e-001 1.8920421600341797e-001</leafValues></_>
        <_>
          <internalNodes>
            0 -1 126 1.2342901900410652e-002</internalNodes>
          <leafValues>
            -8.3170451223850250e-002 3.5896542668342590e-001</leafValues></_>
        <_>
          <internalNodes>
            0 -1 192 -1.6331363003700972e-003</internalNodes>
          <leafValues>
            -3.3688914775848389e-001 1.0395435243844986e-001</leafValues></_>
        <_>
          <internalNodes>
            0 -1 837 -6.9236075505614281e-003</internalNodes>
          <leafValues>
            2.8847894072532654e-001 -1.1019619554281235e-001</leafValues></_>
        <_>
          <internalNodes>
            0 -1 384 -2.3292459547519684e-002</internalNodes>
          <leafValues>
            3.4430146217346191e-001 -8.8348738849163055e-002</leafValues></_>
        <_>
          <internalNodes>
            0 -1 271 -9.2655867338180542e-003</internalNodes>
          <leafValues>
            2.2581931948661804e-001 -1.3074706494808197e-001</leafValues></_>
        <_>
          <internalNodes>
            0 -1 90 -3.0536419944837689e-004</internalNodes>
          <leafValues>
            -2.6512828469276428e-001 1.1575073003768921e-001</leafValues></_>
        <_>
          <internalNodes>
            0 -1 90 6.7739142104983330e-004</internalNodes>
          <leafValues>
            1.2490431964397430e-001 -3.8455221056938171e-001</leafValues></_>
        <_>
          <internalNodes>
            0 -1 850 6.1371279880404472e-003</internalNodes>
          <leafValues>
            -9.2453069984912872e-002 3.3809569478034973e-001</leafValues></_>
        <_>
          <internalNodes>
            0 -1 415 -1.1166879907250404e-002</internalNodes>
          <leafValues>
            3.9357167482376099e-001 -7.3006078600883484e-002</leafValues></_>
        <_>
          <internalNodes>
            0 -1 547 -4.9310564063489437e-003</internalNodes>
          <leafValues>
            -5.0083327293395996e-001 6.2055312097072601e-002</leafValues></_>
        <_>
          <internalNodes>
            0 -1 159 -1.1501979082822800e-002</internalNodes>
          <leafValues>
            4.9250531196594238e-001 -6.6429339349269867e-002</leafValues></_>
        <_>
          <internalNodes>
            0 -1 675 1.3512015342712402e-002</internalNodes>
          <leafValues>
            -1.1714711040258408e-001 2.6022556424140930e-001</leafValues></_>
        <_>
          <internalNodes>
            0 -1 254 2.3205534089356661e-003</internalNodes>
          <leafValues>
            -2.7229112386703491e-001 1.1679496616125107e-001</leafValues></_>
        <_>
          <internalNodes>
            0 -1 173 3.7382673472166061e-003</internalNodes>
          <leafValues>
            -6.0434665530920029e-002 5.0688678026199341e-001</leafValues></_>
        <_>
          <internalNodes>
            0 -1 278 4.4997041113674641e-003</internalNodes>
          <leafValues>
            -4.4554714113473892e-002 5.5978369712829590e-001</leafValues></_>
        <_>
          <internalNodes>
            0 -1 879 -2.4080085568130016e-003</internalNodes>
          <leafValues>
            2.6121538877487183e-001 -1.0567368566989899e-001</leafValues></_>
        <_>
          <internalNodes>
            0 -1 269 -1.5262090601027012e-003</internalNodes>
          <leafValues>
            -3.8221561908721924e-001 7.6831556856632233e-002</leafValues></_>
        <_>
          <internalNodes>
            0 -1 643 -5.5218606576090679e-005</internalNodes>
          <leafValues>
            1.4821954071521759e-001 -1.9484540820121765e-001</leafValues></_>
        <_>
          <internalNodes>
            0 -1 617 5.6661129929125309e-003</internalNodes>
          <leafValues>
            -9.8997443914413452e-002 2.8822010755538940e-001</leafValues></_>
        <_>
          <internalNodes>
            0 -1 852 -8.0706708831712604e-004</internalNodes>
          <leafValues>
            1.3423277437686920e-001 -2.1576693654060364e-001</leafValues></_>
        <_>
          <internalNodes>
            0 -1 927 -1.9510197453200817e-003</internalNodes>
          <leafValues>
            3.6113274097442627e-001 -1.0245861113071442e-001</leafValues></_>
        <_>
          <internalNodes>
            0 -1 929 -2.0501350518316031e-003</internalNodes>
          <leafValues>
            2.4533471465110779e-001 -1.2719088792800903e-001</leafValues></_>
        <_>
          <internalNodes>
            0 -1 724 5.1268050447106361e-003</internalNodes>
          <leafValues>
            7.1491554379463196e-002 -4.2467710375785828e-001</leafValues></_>
        <_>
          <internalNodes>
            0 -1 755 -4.1473777964711189e-003</internalNodes>
          <leafValues>
            -5.0917452573776245e-001 6.4800292253494263e-002</leafValues></_>
        <_>
          <internalNodes>
            0 -1 613 -1.1621577665209770e-002</internalNodes>
          <leafValues>
            -5.9664309024810791e-001 4.2791623622179031e-002</leafValues></_>
        <_>
          <internalNodes>
            0 -1 392 2.7663074433803558e-003</internalNodes>
          <leafValues>
            7.7674962580204010e-002 -3.5090839862823486e-001</leafValues></_></weakClassifiers></_>
    <!-- stage 7 -->
    <_>
      <maxWeakCount>53</maxWeakCount>
      <stageThreshold>-8.6570024490356445e-001</stageThreshold>
      <weakClassifiers>
        <_>
          <internalNodes>
            0 -1 24 -5.5464044213294983e-002</internalNodes>
          <leafValues>
            6.8820816278457642e-001 1.0757137089967728e-001</leafValues></_>
        <_>
          <internalNodes>
            0 -1 83 -4.6068407595157623e-002</internalNodes>
          <leafValues>
            4.3353343009948730e-001 -1.1405349522829056e-001</leafValues></_>
        <_>
          <internalNodes>
            0 -1 351 7.4527543038129807e-003</internalNodes>
          <leafValues>
            -7.6516382396221161e-002 5.8579289913177490e-001</leafValues></_>
        <_>
          <internalNodes>
            0 -1 925 -8.4228990599513054e-003</internalNodes>
          <leafValues>
            3.3940082788467407e-001 -1.3957419991493225e-001</leafValues></_>
        <_>
          <internalNodes>
            0 -1 49 3.8587868213653564e-002</internalNodes>
          <leafValues>
            -9.4108261168003082e-002 3.6704915761947632e-001</leafValues></_>
        <_>
          <internalNodes>
            0 -1 118 -1.5053384937345982e-002</internalNodes>
          <leafValues>
            4.0857100486755371e-001 -9.1891013085842133e-002</leafValues></_>
        <_>
          <internalNodes>
            0 -1 749 -3.3284751698374748e-003</internalNodes>
          <leafValues>
            5.1158559322357178e-001 -8.2076780498027802e-002</leafValues></_>
        <_>
          <internalNodes>
            0 -1 665 -8.9392904192209244e-003</internalNodes>
          <leafValues>
            6.0878074169158936e-001 -7.1291871368885040e-002</leafValues></_>
        <_>
          <internalNodes>
            0 -1 653 -2.3101342841982841e-002</internalNodes>
          <leafValues>
            1.8600261211395264e-001 -2.0017147064208984e-001</leafValues></_>
        <_>
          <internalNodes>
            0 -1 340 -5.2446499466896057e-003</internalNodes>
          <leafValues>
            4.1566643118858337e-001 -7.5992532074451447e-002</leafValues></_>
        <_>
          <internalNodes>
            0 -1 9 -1.7508952878415585e-003</internalNodes>
          <leafValues>
            -3.2315245270729065e-001 1.0579767823219299e-001</leafValues></_>
        <_>
          <internalNodes>
            0 -1 163 -1.9649700261652470e-003</internalNodes>
          <leafValues>
            2.0517534017562866e-001 -1.4273311197757721e-001</leafValues></_>
        <_>
          <internalNodes>
            0 -1 846 2.4010194465517998e-003</internalNodes>
          <leafValues>
            9.8734267055988312e-002 -3.0595996975898743e-001</leafValues></_>
        <_>
          <internalNodes>
            0 -1 556 -2.6444084942340851e-002</internalNodes>
          <leafValues>
            -7.5658589601516724e-001 3.8234714418649673e-002</leafValues></_>
        <_>
          <internalNodes>
            0 -1 417 -5.5602695792913437e-003</internalNodes>
          <leafValues>
            -4.6743315458297729e-001 5.5094510316848755e-002</leafValues></_>
        <_>
          <internalNodes>
            0 -1 413 1.1382157914340496e-002</internalNodes>
          <leafValues>
            -6.1788819730281830e-002 4.5513364672660828e-001</leafValues></_>
        <_>
          <internalNodes>
            0 -1 754 -3.4035611897706985e-003</internalNodes>
          <leafValues>
            4.5555952191352844e-001 -5.4042939096689224e-002</leafValues></_>
        <_>
          <internalNodes>
            0 -1 845 1.6007680445909500e-002</internalNodes>
          <leafValues>
            -5.7686246931552887e-002 4.7195261716842651e-001</leafValues></_>
        <_>
          <internalNodes>
            0 -1 901 4.7007802641019225e-004</internalNodes>
          <leafValues>
            1.0237751901149750e-001 -2.7029046416282654e-001</leafValues></_>
        <_>
          <internalNodes>
            0 -1 901 -3.7272850750014186e-004</internalNodes>
          <leafValues>
            -3.1223744153976440e-001 1.2132456153631210e-001</leafValues></_>
        <_>
          <internalNodes>
            0 -1 776 -2.9465064872056246e-003</internalNodes>
          <leafValues>
            3.3730357885360718e-001 -8.8961079716682434e-002</leafValues></_>
        <_>
          <internalNodes>
            0 -1 188 9.1617368161678314e-003</internalNodes>
          <leafValues>
            -2.3680713772773743e-001 1.3117247819900513e-001</leafValues></_>
        <_>
          <internalNodes>
            0 -1 128 -7.1107931435108185e-003</internalNodes>
          <leafValues>
            2.7693808078765869e-001 -9.8936818540096283e-002</leafValues></_>
        <_>
          <internalNodes>
            0 -1 138 1.9221813417971134e-003</internalNodes>
          <leafValues>
            -8.1506229937076569e-002 3.6120060086250305e-001</leafValues></_>
        <_>
          <internalNodes>
            0 -1 191 4.2134048417210579e-003</internalNodes>
          <leafValues>
            4.7655370086431503e-002 -5.9884291887283325e-001</leafValues></_>
        <_>
          <internalNodes>
            0 -1 807 -9.5084588974714279e-003</internalNodes>
          <leafValues>
            -7.7850890159606934e-001 2.9295824468135834e-002</leafValues></_>
        <_>
          <internalNodes>
            0 -1 822 -3.4137999173253775e-003</internalNodes>
          <leafValues>
            2.5345757603645325e-001 -1.0759690403938293e-001</leafValues></_>
        <_>
          <internalNodes>
            0 -1 938 2.1713349968194962e-002</internalNodes>
          <leafValues>
            -5.4973907768726349e-002 5.8389520645141602e-001</leafValues></_>
        <_>
          <internalNodes>
            0 -1 395 -3.2238073647022247e-002</internalNodes>
          <leafValues>
            -6.0322785377502441e-001 5.5275045335292816e-002</leafValues></_>
        <_>
          <internalNodes>
            0 -1 745 2.4563693441450596e-003</internalNodes>
          <leafValues>
            -8.4516547620296478e-002 3.6031678318977356e-001</leafValues></_>
        <_>
          <internalNodes>
            0 -1 417 6.3901594839990139e-003</internalNodes>
          <leafValues>
            5.6438323110342026e-002 -4.9979701638221741e-001</leafValues></_>
        <_>
          <internalNodes>
            0 -1 488 4.3846326880156994e-003</internalNodes>
          <leafValues>
            -1.7430444061756134e-001 1.5897457301616669e-001</leafValues></_>
        <_>
          <internalNodes>
            0 -1 439 6.1676483601331711e-003</internalNodes>
          <leafValues>
            -1.7930282652378082e-001 1.7118422687053680e-001</leafValues></_>
        <_>
          <internalNodes>
            0 -1 764 -3.2879076898097992e-002</internalNodes>
          <leafValues>
            -5.9192645549774170e-001 4.6183422207832336e-002</leafValues></_>
        <_>
          <internalNodes>
            0 -1 409 1.9533811137080193e-002</internalNodes>
          <leafValues>
            -6.5304853022098541e-002 4.4092676043510437e-001</leafValues></_>
        <_>
          <internalNodes>
            0 -1 364 -1.5842413529753685e-002</internalNodes>
          <leafValues>
            2.9579752683639526e-001 -9.7805730998516083e-002</leafValues></_>
        <_>
          <internalNodes>
            0 -1 853 -1.1566599830985069e-002</internalNodes>
          <leafValues>
            3.7498423457145691e-001 -7.3580473661422729e-002</leafValues></_>
        <_>
          <internalNodes>
            0 -1 333 2.5062263011932373e-002</internalNodes>
          <leafValues>
            -4.7775726765394211e-002 5.5557876825332642e-001</leafValues></_>
        <_>
          <internalNodes>
            0 -1 549 -6.5310543868690729e-004</internalNodes>
          <leafValues>
            -2.7858048677444458e-001 1.0585449635982513e-001</leafValues></_>
        <_>
          <internalNodes>
            0 -1 894 -4.6716090291738510e-003</internalNodes>
          <leafValues>
            -4.5169085264205933e-001 5.5033158510923386e-002</leafValues></_>
        <_>
          <internalNodes>
            0 -1 739 8.5057932883501053e-003</internalNodes>
          <leafValues>
            -5.7728420943021774e-002 4.8356682062149048e-001</leafValues></_>
        <_>
          <internalNodes>
            0 -1 160 4.2597339488565922e-003</internalNodes>
          <leafValues>
            -3.8788203150033951e-002 6.0463869571685791e-001</leafValues></_>
        <_>
          <internalNodes>
            0 -1 696 6.9707133807241917e-003</internalNodes>
          <leafValues>
            5.3179681301116943e-002 -5.3100687265396118e-001</leafValues></_>
        <_>
          <internalNodes>
            0 -1 761 4.6438284218311310e-002</internalNodes>
          <leafValues>
            -3.6320436745882034e-002 7.7328246831893921e-001</leafValues></_>
        <_>
          <internalNodes>
            0 -1 678 -1.9619143567979336e-003</internalNodes>
          <leafValues>
            1.6303431987762451e-001 -1.6135649383068085e-001</leafValues></_>
        <_>
          <internalNodes>
            0 -1 673 -1.3458216562867165e-002</internalNodes>
          <leafValues>
            4.1864359378814697e-001 -6.5958976745605469e-002</leafValues></_>
        <_>
          <internalNodes>
            0 -1 566 6.2512524891644716e-004</internalNodes>
          <leafValues>
            -1.9519050419330597e-001 1.4477740228176117e-001</leafValues></_>
        <_>
          <internalNodes>
            0 -1 322 -1.0915718972682953e-002</internalNodes>
          <leafValues>
            2.3879902064800262e-001 -1.1501833796501160e-001</leafValues></_>
        <_>
          <internalNodes>
            0 -1 186 1.6385771334171295e-002</internalNodes>
          <leafValues>
            4.6491764485836029e-002 -6.0174995660781860e-001</leafValues></_>
        <_>
          <internalNodes>
            0 -1 75 -7.5041092932224274e-003</internalNodes>
          <leafValues>
            2.5183361768722534e-001 -1.1322981864213943e-001</leafValues></_>
        <_>
          <internalNodes>
            0 -1 624 -7.7151972800493240e-003</internalNodes>
          <leafValues>
            -6.2874937057495117e-001 4.5237705111503601e-002</leafValues></_>
        <_>
          <internalNodes>
            0 -1 538 -9.1825425624847412e-003</internalNodes>
          <leafValues>
            3.3219566941261292e-001 -9.2237710952758789e-002</leafValues></_>
        <_>
          <internalNodes>
            0 -1 562 2.3540112376213074e-001</internalNodes>
          <leafValues>
            3.5863664001226425e-002 -8.2820063829421997e-001</leafValues></_></weakClassifiers></_>
    <!-- stage 8 -->
    <_>
      <maxWeakCount>62</maxWeakCount>
      <stageThreshold>-9.3297731876373291e-001</stageThreshold>
      <weakClassifiers>
        <_>
          <internalNodes>
            0 -1 903 1.8678406253457069e-002</internalNodes>
          <leafValues>
            1.3474878668785095e-001 6.5228164196014404e-001</leafValues></_>
        <_>
          <internalNodes>
            0 -1 924 1.2166189961135387e-002</internalNodes>
          <leafValues>
            -9.4870537519454956e-002 5.3823834657669067e-001</leafValues></_>
        <_>
          <internalNodes>
            0 -1 117 -1.4402283355593681e-002</internalNodes>
          <leafValues>
            3.9499014616012573e-001 -1.3503307104110718e-001</leafValues></_>
        <_>
          <internalNodes>
            0 -1 345 -3.6688705440610647e-003</internalNodes>
          <leafValues>
            3.6281430721282959e-001 -1.3259252905845642e-001</leafValues></_>
        <_>
          <internalNodes>
            0 -1 343 1.3928242027759552e-002</internalNodes>
          <leafValues>
            -1.0354262590408325e-001 3.3157154917716980e-001</leafValues></_>
        <_>
          <internalNodes>
            0 -1 116 1.3071561232209206e-002</internalNodes>
          <leafValues>
            -1.0129289329051971e-001 3.8751533627510071e-001</leafValues></_>
        <_>
          <internalNodes>
            0 -1 408 3.1395778059959412e-002</internalNodes>
          <leafValues>
            -5.6023325771093369e-002 6.6951155662536621e-001</leafValues></_>
        <_>
          <internalNodes>
            0 -1 775 3.3358533983118832e-004</internalNodes>
          <leafValues>
            1.3026016950607300e-001 -2.5336268544197083e-001</leafValues></_>
        <_>
          <internalNodes>
            0 -1 775 -5.7625322369858623e-004</internalNodes>
          <leafValues>
            -3.3075487613677979e-001 1.0501323640346527e-001</leafValues></_>
        <_>
          <internalNodes>
            0 -1 890 6.3371900469064713e-003</internalNodes>
          <leafValues>
            -9.1394700109958649e-002 3.6853960156440735e-001</leafValues></_>
        <_>
          <internalNodes>
            0 -1 706 2.5264421477913857e-002</internalNodes>
          <leafValues>
            -1.8666337430477142e-001 1.7014180123806000e-001</leafValues></_>
        <_>
          <internalNodes>
            0 -1 808 3.0550457537174225e-002</internalNodes>
          <leafValues>
            -5.3822103887796402e-002 5.3943681716918945e-001</leafValues></_>
        <_>
          <internalNodes>
            0 -1 390 -1.5206519514322281e-002</internalNodes>
          <leafValues>
            3.4789711236953735e-001 -8.0139912664890289e-002</leafValues></_>
        <_>
          <internalNodes>
            0 -1 333 3.0367143452167511e-002</internalNodes>
          <leafValues>
            -4.5212138444185257e-002 6.6080456972122192e-001</leafValues></_>
        <_>
          <internalNodes>
            0 -1 349 -1.8277265131473541e-002</internalNodes>
          <leafValues>
            3.2677295804023743e-001 -8.2060731947422028e-002</leafValues></_>
        <_>
          <internalNodes>
            0 -1 365 1.2879149615764618e-001</internalNodes>
          <leafValues>
            -2.3809911310672760e-001 1.3679879903793335e-001</leafValues></_>
        <_>
          <internalNodes>
            0 -1 828 -1.6142074018716812e-002</internalNodes>
          <leafValues>
            4.0744334459304810e-001 -8.3317428827285767e-002</leafValues></_>
        <_>
          <internalNodes>
            0 -1 1 -2.2578824427910149e-004</internalNodes>
          <leafValues>
            -2.3375231027603149e-001 1.1843070387840271e-001</leafValues></_>
        <_>
          <internalNodes>
            0 -1 1 5.4333219304680824e-004</internalNodes>
          <leafValues>
            9.5064267516136169e-002 -2.7383816242218018e-001</leafValues></_>
        <_>
          <internalNodes>
            0 -1 949 5.6246011517941952e-003</internalNodes>
          <leafValues>
            5.1883954554796219e-002 -4.9747163057327271e-001</leafValues></_>
        <_>
          <internalNodes>
            0 -1 812 2.3206193000078201e-003</internalNodes>
          <leafValues>
            -6.9101437926292419e-002 3.8002347946166992e-001</leafValues></_>
        <_>
          <internalNodes>
            0 -1 793 5.2678203210234642e-003</internalNodes>
          <leafValues>
            -4.2606372386217117e-002 6.0396897792816162e-001</leafValues></_>
        <_>
          <internalNodes>
            0 -1 927 -2.8794873505830765e-003</internalNodes>
          <leafValues>
            3.8843840360641479e-001 -6.3673712313175201e-002</leafValues></_>
        <_>
          <internalNodes>
            0 -1 877 -1.7120603006333113e-003</internalNodes>
          <leafValues>
            -3.9495083689689636e-001 6.8460017442703247e-002</leafValues></_>
        <_>
          <internalNodes>
            0 -1 878 2.6788809336721897e-003</internalNodes>
          <leafValues>
            5.2677419036626816e-002 -4.5211553573608398e-001</leafValues></_>
        <_>
          <internalNodes>
            0 -1 782 -2.3783263750374317e-003</internalNodes>
          <leafValues>
            1.9735491275787354e-001 -1.2850524485111237e-001</leafValues></_>
        <_>
          <internalNodes>
            0 -1 77 4.1850395500659943e-003</internalNodes>
          <leafValues>
            -9.9803440272808075e-002 2.5141301751136780e-001</leafValues></_>
        <_>
          <internalNodes>
            0 -1 467 -9.3916319310665131e-003</internalNodes>
          <leafValues>
            -7.3755669593811035e-001 3.1765617430210114e-002</leafValues></_>
        <_>
          <internalNodes>
            0 -1 96 1.2579778209328651e-002</internalNodes>
          <leafValues>
            -7.6840393245220184e-002 3.2838568091392517e-001</leafValues></_>
        <_>
          <internalNodes>
            0 -1 401 -1.3352084904909134e-002</internalNodes>
          <leafValues>
            -5.8891373872756958e-001 4.0747053921222687e-002</leafValues></_>
        <_>
          <internalNodes>
            0 -1 283 3.0941441655158997e-003</internalNodes>
          <leafValues>
            -5.6127496063709259e-002 4.0881192684173584e-001</leafValues></_>
        <_>
          <internalNodes>
            0 -1 355 7.5008068233728409e-003</internalNodes>
          <leafValues>
            -7.4074059724807739e-002 2.9452580213546753e-001</leafValues></_>
        <_>
          <internalNodes>
            0 -1 210 6.0180723667144775e-003</internalNodes>
          <leafValues>
            4.8220191150903702e-002 -4.8095905780792236e-001</leafValues></_>
        <_>
          <internalNodes>
            0 -1 693 6.2241209670901299e-003</internalNodes>
          <leafValues>
            4.7567822039127350e-002 -4.5625302195549011e-001</leafValues></_>
        <_>
          <internalNodes>
            0 -1 551 7.9862261191010475e-003</internalNodes>
          <leafValues>
            -6.5519846975803375e-002 4.0151146054267883e-001</leafValues></_>
        <_>
          <internalNodes>
            0 -1 268 1.7115280032157898e-002</internalNodes>
          <leafValues>
            -7.2949580848217010e-002 3.1666812300682068e-001</leafValues></_>
        <_>
          <internalNodes>
            0 -1 451 -1.2002508156001568e-002</internalNodes>
          <leafValues>
            1.4347399771213531e-001 -1.6790431737899780e-001</leafValues></_>
        <_>
          <internalNodes>
            0 -1 262 4.9448581412434578e-003</internalNodes>
          <leafValues>
            5.3652029484510422e-002 -4.4611728191375732e-001</leafValues></_>
        <_>
          <internalNodes>
            0 -1 685 -1.1977686546742916e-002</internalNodes>
          <leafValues>
            1.8790371716022491e-001 -1.2390851229429245e-001</leafValues></_>
        <_>
          <internalNodes>
            0 -1 898 3.8500768132507801e-003</internalNodes>
          <leafValues>
            -4.5772828161716461e-002 5.1448184251785278e-001</leafValues></_>
        <_>
          <internalNodes>
            0 -1 657 5.7601854205131531e-003</internalNodes>
          <leafValues>
            5.0433255732059479e-002 -4.8449170589447021e-001</leafValues></_>
        <_>
          <internalNodes>
            0 -1 570 1.5706840902566910e-002</internalNodes>
          <leafValues>
            -1.2426792830228806e-001 1.9236141443252563e-001</leafValues></_>
        <_>
          <internalNodes>
            0 -1 738 6.6816541366279125e-003</internalNodes>
          <leafValues>
            -4.1358452290296555e-002 5.3837138414382935e-001</leafValues></_>
        <_>
          <internalNodes>
            0 -1 716 5.5236518383026123e-003</internalNodes>
          <leafValues>
            -6.5963476896286011e-002 3.2405310869216919e-001</leafValues></_>
        <_>
          <internalNodes>
            0 -1 886 -1.5455630607903004e-002</internalNodes>
          <leafValues>
            -7.2536402940750122e-001 3.2614897936582565e-002</leafValues></_>
        <_>
          <internalNodes>
            0 -1 344 7.4006849899888039e-004</internalNodes>
          <leafValues>
            7.3620289564132690e-002 -2.9587784409523010e-001</leafValues></_>
        <_>
          <internalNodes>
            0 -1 374 2.7357034385204315e-002</internalNodes>
          <leafValues>
            -1.4579556882381439e-001 1.5759566426277161e-001</leafValues></_>
        <_>
          <internalNodes>
            0 -1 434 -1.8901367438957095e-003</internalNodes>
          <leafValues>
            -2.3303779959678650e-001 1.0514339804649353e-001</leafValues></_>
        <_>
          <internalNodes>
            0 -1 252 -1.4138067141175270e-002</internalNodes>
          <leafValues>
            4.8234790563583374e-001 -5.0864282995462418e-002</leafValues></_>
        <_>
          <internalNodes>
            0 -1 109 1.3272935524582863e-002</internalNodes>
          <leafValues>
            -5.6929685175418854e-002 3.7470829486846924e-001</leafValues></_>
        <_>
          <internalNodes>
            0 -1 137 -2.0211036317050457e-003</internalNodes>
          <leafValues>
            2.2478514909744263e-001 -1.1419037729501724e-001</leafValues></_>
        <_>
          <internalNodes>
            0 -1 499 -1.7216823995113373e-002</internalNodes>
          <leafValues>
            -8.2593977451324463e-001 2.7441719546914101e-002</leafValues></_>
        <_>
          <internalNodes>
            0 -1 772 -4.7346297651529312e-003</internalNodes>
          <leafValues>
            3.6676797270774841e-001 -6.6248923540115356e-002</leafValues></_>
        <_>
          <internalNodes>
            0 -1 385 7.8711789101362228e-003</internalNodes>
          <leafValues>
            4.4044818729162216e-002 -5.2617555856704712e-001</leafValues></_>
        <_>
          <internalNodes>
            0 -1 197 4.3821567669510841e-003</internalNodes>
          <leafValues>
            6.5324708819389343e-002 -3.1698071956634521e-001</leafValues></_>
        <_>
          <internalNodes>
            0 -1 202 -1.4534206129610538e-003</internalNodes>
          <leafValues>
            -2.8263273835182190e-001 8.2869522273540497e-002</leafValues></_>
        <_>
          <internalNodes>
            0 -1 220 -5.3741820156574249e-003</internalNodes>
          <leafValues>
            4.8459336161613464e-001 -4.6770852059125900e-002</leafValues></_>
        <_>
          <internalNodes>
            0 -1 132 -2.3097561672329903e-002</internalNodes>
          <leafValues>
            -6.1148464679718018e-001 3.7922848016023636e-002</leafValues></_>
        <_>
          <internalNodes>
            0 -1 277 -2.5955422315746546e-003</internalNodes>
          <leafValues>
            3.4473019838333130e-001 -6.6234007477760315e-002</leafValues></_>
        <_>
          <internalNodes>
            0 -1 662 1.0594793129712343e-003</internalNodes>
          <leafValues>
            6.9972962141036987e-002 -3.2042139768600464e-001</leafValues></_>
        <_>
          <internalNodes>
            0 -1 836 5.3646033629775047e-003</internalNodes>
          <leafValues>
            -6.6475190222263336e-002 3.3368447422981262e-001</leafValues></_>
        <_>
          <internalNodes>
            0 -1 842 -6.2603801488876343e-003</internalNodes>
          <leafValues>
            3.5049629211425781e-001 -6.7392438650131226e-002</leafValues></_></weakClassifiers></_>
    <!-- stage 9 -->
    <_>
      <maxWeakCount>64</maxWeakCount>
      <stageThreshold>-8.9512604475021362e-001</stageThreshold>
      <weakClassifiers>
        <_>
          <internalNodes>
            0 -1 31 -8.3025351166725159e-002</internalNodes>
          <leafValues>
            7.1221947669982910e-001 1.6887298226356506e-001</leafValues></_>
        <_>
          <internalNodes>
            0 -1 826 -2.6977159082889557e-002</internalNodes>
          <leafValues>
            4.5906344056129456e-001 -1.3137003779411316e-001</leafValues></_>
        <_>
          <internalNodes>
            0 -1 33 -4.5630808919668198e-002</internalNodes>
          <leafValues>
            5.0402528047561646e-001 -7.7539496123790741e-002</leafValues></_>
        <_>
          <internalNodes>
            0 -1 346 3.6579668521881104e-003</internalNodes>
          <leafValues>
            -1.1446110904216766e-001 3.9086821675300598e-001</leafValues></_>
        <_>
          <internalNodes>
            0 -1 346 -3.1707705929875374e-003</internalNodes>
          <leafValues>
            3.2901161909103394e-001 -1.1919847875833511e-001</leafValues></_>
        <_>
          <internalNodes>
            0 -1 746 1.4266662765294313e-003</internalNodes>
          <leafValues>
            1.1023002117872238e-001 -2.6592668890953064e-001</leafValues></_>
        <_>
          <internalNodes>
            0 -1 905 -1.3916924595832825e-002</internalNodes>
          <leafValues>
            3.5144641995429993e-001 -9.2881888151168823e-002</leafValues></_>
        <_>
          <internalNodes>
            0 -1 15 1.1432017385959625e-001</internalNodes>
          <leafValues>
            5.8908704668283463e-002 -5.3713756799697876e-001</leafValues></_>
        <_>
          <internalNodes>
            0 -1 357 -1.0577940847724676e-003</internalNodes>
          <leafValues>
            -3.2556197047233582e-001 7.8594252467155457e-002</leafValues></_>
        <_>
          <internalNodes>
            0 -1 917 5.2279378287494183e-003</internalNodes>
          <leafValues>
            -1.4814165234565735e-001 1.8991239368915558e-001</leafValues></_>
        <_>
          <internalNodes>
            0 -1 927 -1.0891878046095371e-003</internalNodes>
          <leafValues>
            2.9453089833259583e-001 -1.2028849124908447e-001</leafValues></_>
        <_>
          <internalNodes>
            0 -1 117 1.5339527279138565e-002</internalNodes>
          <leafValues>
            -6.6505327820777893e-002 3.8866367936134338e-001</leafValues></_>
        <_>
          <internalNodes>
            0 -1 746 -1.7241203458979726e-003</internalNodes>
          <leafValues>
            -2.7764326333999634e-001 1.0325388610363007e-001</leafValues></_>
        <_>
          <internalNodes>
            0 -1 134 1.1077071540057659e-002</internalNodes>
          <leafValues>
            -7.7481374144554138e-002 3.6439788341522217e-001</leafValues></_>
        <_>
          <internalNodes>
            0 -1 477 3.8109682500362396e-002</internalNodes>
          <leafValues>
            -1.5448997914791107e-001 1.8234445154666901e-001</leafValues></_>
        <_>
          <internalNodes>
            0 -1 584 1.6884725540876389e-002</internalNodes>
          <leafValues>
            -4.5413020998239517e-002 5.2933418750762939e-001</leafValues></_>
        <_>
          <internalNodes>
            0 -1 622 -1.5971280634403229e-002</internalNodes>
          <leafValues>
            2.2315137088298798e-001 -1.1373443901538849e-001</leafValues></_>
        <_>
          <internalNodes>
            0 -1 330 1.2744895182549953e-002</internalNodes>
          <leafValues>
            -6.4287073910236359e-002 4.3126213550567627e-001</leafValues></_>
        <_>
          <internalNodes>
            0 -1 660 -8.1866253167390823e-003</internalNodes>
          <leafValues>
            -4.6940404176712036e-001 6.0453746467828751e-002</leafValues></_>
        <_>
          <internalNodes>
            0 -1 888 4.2941886931657791e-003</internalNodes>
          <leafValues>
            -7.1415171027183533e-002 3.4988141059875488e-001</leafValues></_>
        <_>
          <internalNodes>
            0 -1 17 -5.2295549539849162e-004</internalNodes>
          <leafValues>
            -2.5322711467742920e-001 1.0022777318954468e-001</leafValues></_>
        <_>
          <internalNodes>
            0 -1 228 6.4549278467893600e-003</internalNodes>
          <leafValues>
            -5.5018536746501923e-002 5.3668868541717529e-001</leafValues></_>
        <_>
          <internalNodes>
            0 -1 563 1.0306786745786667e-002</internalNodes>
          <leafValues>
            -2.0572584867477417e-001 1.2571656703948975e-001</leafValues></_>
        <_>
          <internalNodes>
            0 -1 17 7.8608805779367685e-004</internalNodes>
          <leafValues>
            8.2750871777534485e-002 -2.8974366188049316e-001</leafValues></_>
        <_>
          <internalNodes>
            0 -1 294 2.8273381292819977e-002</internalNodes>
          <leafValues>
            -8.1360228359699249e-002 3.1800714135169983e-001</leafValues></_>
        <_>
          <internalNodes>
            0 -1 869 -6.4949593506753445e-003</internalNodes>
          <leafValues>
            1.8693149089813232e-001 -1.4632146060466766e-001</leafValues></_>
        <_>
          <internalNodes>
            0 -1 173 -5.3604617714881897e-003</internalNodes>
          <leafValues>
            5.7703286409378052e-001 -4.9396481364965439e-002</leafValues></_>
        <_>
          <internalNodes>
            0 -1 236 -1.1946713551878929e-002</internalNodes>
          <leafValues>
            2.9329743981361389e-001 -8.2754008471965790e-002</leafValues></_>
        <_>
          <internalNodes>
            0 -1 148 -2.3940188810229301e-002</internalNodes>
          <leafValues>
            5.3661996126174927e-001 -4.7733452171087265e-002</leafValues></_>
        <_>
          <internalNodes>
            0 -1 446 -1.4678321778774261e-002</internalNodes>
          <leafValues>
            1.1785910278558731e-001 -2.6462185382843018e-001</leafValues></_>
        <_>
          <internalNodes>
            0 -1 357 1.4461677055805922e-003</internalNodes>
          <leafValues>
            6.6419243812561035e-002 -3.8160118460655212e-001</leafValues></_>
        <_>
          <internalNodes>
            0 -1 278 3.9256480522453785e-003</internalNodes>
          <leafValues>
            -6.1474602669477463e-002 4.5638301968574524e-001</leafValues></_>
        <_>
          <internalNodes>
            0 -1 153 -7.1108061820268631e-003</internalNodes>
          <leafValues>
            1.7491306364536285e-001 -1.3765530288219452e-001</leafValues></_>
        <_>
          <internalNodes>
            0 -1 933 -7.5371330603957176e-003</internalNodes>
          <leafValues>
            -5.2287626266479492e-001 4.3245282024145126e-002</leafValues></_>
        <_>
          <internalNodes>
            0 -1 349 1.2893900275230408e-002</internalNodes>
          <leafValues>
            -7.1228951215744019e-002 3.5088196396827698e-001</leafValues></_>
        <_>
          <internalNodes>
            0 -1 300 4.9383081204723567e-005</internalNodes>
          <leafValues>
            -1.6231843829154968e-001 1.7530855536460876e-001</leafValues></_>
        <_>
          <internalNodes>
            0 -1 933 7.0642875507473946e-003</internalNodes>
          <leafValues>
            5.0053626298904419e-002 -5.2157062292098999e-001</leafValues></_>
        <_>
          <internalNodes>
            0 -1 893 -6.3600856810808182e-003</internalNodes>
          <leafValues>
            2.6996755599975586e-001 -8.9665107429027557e-002</leafValues></_>
        <_>
          <internalNodes>
            0 -1 897 1.0410755872726440e-002</internalNodes>
          <leafValues>
            -7.8447408974170685e-002 3.1537446379661560e-001</leafValues></_>
        <_>
          <internalNodes>
            0 -1 170 4.6490048989653587e-003</internalNodes>
          <leafValues>
            -3.8559302687644958e-002 5.1745146512985229e-001</leafValues></_>
        <_>
          <internalNodes>
            0 -1 85 -2.0467247813940048e-003</internalNodes>
          <leafValues>
            -2.8674226999282837e-001 7.7448666095733643e-002</leafValues></_>
        <_>
          <internalNodes>
            0 -1 87 8.6094217840582132e-004</internalNodes>
          <leafValues>
            8.5207425057888031e-002 -2.7205082774162292e-001</leafValues></_>
        <_>
          <internalNodes>
            0 -1 224 -7.4985083192586899e-003</internalNodes>
          <leafValues>
            1.6981832683086395e-001 -1.2963439524173737e-001</leafValues></_>
        <_>
          <internalNodes>
            0 -1 67 -3.1306988094002008e-003</internalNodes>
          <leafValues>
            2.2834582626819611e-001 -9.7467221319675446e-002</leafValues></_>
        <_>
          <internalNodes>
            0 -1 48 6.6470168530941010e-003</internalNodes>
          <leafValues>
            -8.4006719291210175e-002 2.7027353644371033e-001</leafValues></_>
        <_>
          <internalNodes>
            0 -1 64 1.7700768075883389e-003</internalNodes>
          <leafValues>
            -7.5686961412429810e-002 3.1303539872169495e-001</leafValues></_>
        <_>
          <internalNodes>
            0 -1 62 -7.7875435817986727e-004</internalNodes>
          <leafValues>
            -2.5494134426116943e-001 9.3880154192447662e-002</leafValues></_>
        <_>
          <internalNodes>
            0 -1 198 3.3314540050923824e-003</internalNodes>
          <leafValues>
            6.1371788382530212e-002 -3.6223626136779785e-001</leafValues></_>
        <_>
          <internalNodes>
            0 -1 340 3.9023726712912321e-003</internalNodes>
          <leafValues>
            -6.9752536714076996e-002 3.1354430317878723e-001</leafValues></_>
        <_>
          <internalNodes>
            0 -1 196 -1.0844501666724682e-003</internalNodes>
          <leafValues>
            -2.8974100947380066e-001 8.0528169870376587e-002</leafValues></_>
        <_>
          <internalNodes>
            0 -1 795 4.0966966189444065e-003</internalNodes>
          <leafValues>
            -5.7400509715080261e-002 4.0054604411125183e-001</leafValues></_>
        <_>
          <internalNodes>
            0 -1 719 -1.5800671651959419e-002</internalNodes>
          <leafValues>
            3.4050771594047546e-001 -6.9819822907447815e-002</leafValues></_>
        <_>
          <internalNodes>
            0 -1 752 6.0328338295221329e-003</internalNodes>
          <leafValues>
            5.2396446466445923e-002 -4.3613570928573608e-001</leafValues></_>
        <_>
          <internalNodes>
            0 -1 304 1.0034170933067799e-002</internalNodes>
          <leafValues>
            -1.4172251522541046e-001 1.5241546928882599e-001</leafValues></_>
        <_>
          <internalNodes>
            0 -1 789 -1.2403730303049088e-002</internalNodes>
          <leafValues>
            -5.2609491348266602e-001 4.3372575193643570e-002</leafValues></_>
        <_>
          <internalNodes>
            0 -1 691 4.0000402368605137e-003</internalNodes>
          <leafValues>
            -6.3502281904220581e-002 3.6702856421470642e-001</leafValues></_>
        <_>
          <internalNodes>
            0 -1 745 4.0137534961104393e-003</internalNodes>
          <leafValues>
            -5.2761003375053406e-002 4.1057229042053223e-001</leafValues></_>
        <_>
          <internalNodes>
            0 -1 748 -4.7182128764688969e-003</internalNodes>
          <leafValues>
            4.8968026041984558e-001 -4.7574486583471298e-002</leafValues></_>
        <_>
          <internalNodes>
            0 -1 720 -5.0803790800273418e-003</internalNodes>
          <leafValues>
            -3.2249578833580017e-001 7.5795538723468781e-002</leafValues></_>
        <_>
          <internalNodes>
            0 -1 677 1.3776808045804501e-002</internalNodes>
          <leafValues>
            -1.1243786662817001e-001 2.0628285408020020e-001</leafValues></_>
        <_>
          <internalNodes>
            0 -1 496 -1.2621553614735603e-002</internalNodes>
          <leafValues>
            -5.3793543577194214e-001 4.0330447256565094e-002</leafValues></_>
        <_>
          <internalNodes>
            0 -1 710 9.4903446733951569e-003</internalNodes>
          <leafValues>
            -5.8052219450473785e-002 3.9562383294105530e-001</leafValues></_>
        <_>
          <internalNodes>
            0 -1 558 1.7519246786832809e-002</internalNodes>
          <leafValues>
            -1.3071320950984955e-001 1.6499651968479156e-001</leafValues></_>
        <_>
          <internalNodes>
            0 -1 527 5.8518962759990245e-005</internalNodes>
          <leafValues>
            -1.6568705439567566e-001 1.5332761406898499e-001</leafValues></_></weakClassifiers></_>
    <!-- stage 10 -->
    <_>
      <maxWeakCount>55</maxWeakCount>
      <stageThreshold>-8.4394425153732300e-001</stageThreshold>
      <weakClassifiers>
        <_>
          <internalNodes>
            0 -1 727 1.5281770378351212e-002</internalNodes>
          <leafValues>
            1.2165397405624390e-001 6.4755243062973022e-001</leafValues></_>
        <_>
          <internalNodes>
            0 -1 99 -1.0900139063596725e-001</internalNodes>
          <leafValues>
            4.5791536569595337e-001 -1.0969734191894531e-001</leafValues></_>
        <_>
          <internalNodes>
            0 -1 908 5.0640711560845375e-003</internalNodes>
          <leafValues>
            -1.5737165510654449e-001 3.4687075018882751e-001</leafValues></_>
        <_>
          <internalNodes>
            0 -1 799 -4.2135361582040787e-005</internalNodes>
          <leafValues>
            1.9951869547367096e-001 -2.1840727329254150e-001</leafValues></_>
        <_>
          <internalNodes>
            0 -1 884 -2.7546901255846024e-002</internalNodes>
          <leafValues>
            4.4045811891555786e-001 -8.7237529456615448e-002</leafValues></_>
        <_>
          <internalNodes>
            0 -1 347 -1.1756713502109051e-002</internalNodes>
          <leafValues>
            3.7592178583145142e-001 -1.0064788907766342e-001</leafValues></_>
        <_>
          <internalNodes>
            0 -1 576 4.2380735976621509e-005</internalNodes>
          <leafValues>
            -2.5256377458572388e-001 1.5149618685245514e-001</leafValues></_>
        <_>
          <internalNodes>
            0 -1 346 1.1883876286447048e-003</internalNodes>
          <leafValues>
            -1.1475709080696106e-001 2.8026738762855530e-001</leafValues></_>
        <_>
          <internalNodes>
            0 -1 799 4.9579681217437610e-005</internalNodes>
          <leafValues>
            -1.7610001564025879e-001 2.0889535546302795e-001</leafValues></_>
        <_>
          <internalNodes>
            0 -1 847 -1.8260430078953505e-003</internalNodes>
          <leafValues>
            2.7083370089530945e-001 -1.2846890091896057e-001</leafValues></_>
        <_>
          <internalNodes>
            0 -1 573 -5.1630842790473253e-005</internalNodes>
          <leafValues>
            2.0682451128959656e-001 -1.4456082880496979e-001</leafValues></_>
        <_>
          <internalNodes>
            0 -1 573 4.3790918425656855e-005</internalNodes>
          <leafValues>
            -1.8748678267002106e-001 2.3539017140865326e-001</leafValues></_>
        <_>
          <internalNodes>
            0 -1 897 -1.6890943050384521e-002</internalNodes>
          <leafValues>
            4.2850413918495178e-001 -7.0507355034351349e-002</leafValues></_>
        <_>
          <internalNodes>
            0 -1 824 3.9681408088654280e-004</internalNodes>
          <leafValues>
            1.1111443489789963e-001 -2.8623494505882263e-001</leafValues></_>
        <_>
          <internalNodes>
            0 -1 576 -4.4294778490439057e-005</internalNodes>
          <leafValues>
            2.4152438342571259e-001 -1.2612108886241913e-001</leafValues></_>
        <_>
          <internalNodes>
            0 -1 825 -3.2697952701710165e-004</internalNodes>
          <leafValues>
            -2.4753217399120331e-001 1.2424483895301819e-001</leafValues></_>
        <_>
          <internalNodes>
            0 -1 327 4.7823123168200254e-005</internalNodes>
          <leafValues>
            -1.5845873951911926e-001 1.6675026714801788e-001</leafValues></_>
        <_>
          <internalNodes>
            0 -1 58 -2.4616296868771315e-003</internalNodes>
          <leafValues>
            2.4351999163627625e-001 -1.0553564876317978e-001</leafValues></_>
        <_>
          <internalNodes>
            0 -1 48 6.0071125626564026e-003</internalNodes>
          <leafValues>
            -1.1604667454957962e-001 2.7843764424324036e-001</leafValues></_>
        <_>
          <internalNodes>
            0 -1 652 1.8266292288899422e-002</internalNodes>
          <leafValues>
            -2.1652220189571381e-001 1.2951107323169708e-001</leafValues></_>
        <_>
          <internalNodes>
            0 -1 255 1.3486981391906738e-001</internalNodes>
          <leafValues>
            4.0210518985986710e-002 -6.7150259017944336e-001</leafValues></_>
        <_>
          <internalNodes>
            0 -1 828 1.5224015340209007e-002</internalNodes>
          <leafValues>
            -6.3852779567241669e-002 4.2324766516685486e-001</leafValues></_>
        <_>
          <internalNodes>
            0 -1 751 -1.4352734433487058e-003</internalNodes>
          <leafValues>
            2.0128946006298065e-001 -1.3014161586761475e-001</leafValues></_>
        <_>
          <internalNodes>
            0 -1 208 4.4623193389270455e-005</internalNodes>
          <leafValues>
            -1.4416062831878662e-001 1.7703224718570709e-001</leafValues></_>
        <_>
          <internalNodes>
            0 -1 113 -6.0667283833026886e-003</internalNodes>
          <leafValues>
            3.1899407505989075e-001 -8.7578035891056061e-002</leafValues></_>
        <_>
          <internalNodes>
            0 -1 805 -7.3076942935585976e-003</internalNodes>
          <leafValues>
            -6.7262148857116699e-001 4.0283698588609695e-002</leafValues></_>
        <_>
          <internalNodes>
            0 -1 841 -3.5938713699579239e-003</internalNodes>
          <leafValues>
            -3.8921046257019043e-001 5.6507669389247894e-002</leafValues></_>
        <_>
          <internalNodes>
            0 -1 901 -7.1053323335945606e-004</internalNodes>
          <leafValues>
            -3.0001872777938843e-001 7.6813459396362305e-002</leafValues></_>
        <_>
          <internalNodes>
            0 -1 283 -4.6891812235116959e-003</internalNodes>
          <leafValues>
            5.2763366699218750e-001 -4.7207806259393692e-002</leafValues></_>
        <_>
          <internalNodes>
            0 -1 423 9.0270359069108963e-003</internalNodes>
          <leafValues>
            -1.6776488721370697e-001 1.3860613107681274e-001</leafValues></_>
        <_>
          <internalNodes>
            0 -1 568 -2.1116971038281918e-003</internalNodes>
          <leafValues>
            1.8991589546203613e-001 -1.3164268434047699e-001</leafValues></_>
        <_>
          <internalNodes>
            0 -1 378 4.9565474910195917e-005</internalNodes>
          <leafValues>
            -1.6090597212314606e-001 1.4517620205879211e-001</leafValues></_>
        <_>
          <internalNodes>
            0 -1 310 2.6260316371917725e-001</internalNodes>
          <leafValues>
            3.6379478871822357e-002 -7.1148097515106201e-001</leafValues></_>
        <_>
          <internalNodes>
            0 -1 804 -2.8899081517010927e-003</internalNodes>
          <leafValues>
            -3.5379683971405029e-001 6.3603445887565613e-002</leafValues></_>
        <_>
          <internalNodes>
            0 -1 802 -4.5789703726768494e-003</internalNodes>
          <leafValues>
            1.2089511007070541e-001 -2.3151335120201111e-001</leafValues></_>
        <_>
          <internalNodes>
            0 -1 221 3.4952946007251740e-003</internalNodes>
          <leafValues>
            -4.4890485703945160e-002 4.9860608577728271e-001</leafValues></_>
        <_>
          <internalNodes>
            0 -1 332 -1.3119783252477646e-002</internalNodes>
          <leafValues>
            2.5293597579002380e-001 -1.0683838278055191e-001</leafValues></_>
        <_>
          <internalNodes>
            0 -1 0 -7.6119293225929141e-004</internalNodes>
          <leafValues>
            -2.8690317273139954e-001 8.5676588118076324e-002</leafValues></_>
        <_>
          <internalNodes>
            0 -1 911 -9.4343312084674835e-003</internalNodes>
          <leafValues>
            3.5396680235862732e-001 -6.7571155726909637e-002</leafValues></_>
        <_>
          <internalNodes>
            0 -1 417 -4.0595191530883312e-003</internalNodes>
          <leafValues>
            -3.6370322108268738e-001 6.7001752555370331e-002</leafValues></_>
        <_>
          <internalNodes>
            0 -1 277 2.8682663105428219e-003</internalNodes>
          <leafValues>
            -5.7475641369819641e-002 4.3613687157630920e-001</leafValues></_>
        <_>
          <internalNodes>
            0 -1 238 -3.2629378139972687e-002</internalNodes>
          <leafValues>
            1.9845463335514069e-001 -1.1826443672180176e-001</leafValues></_>
        <_>
          <internalNodes>
            0 -1 206 -4.6994639560580254e-003</internalNodes>
          <leafValues>
            -2.4370838701725006e-001 8.8319681584835052e-002</leafValues></_>
        <_>
          <internalNodes>
            0 -1 651 -9.4848638400435448e-003</internalNodes>
          <leafValues>
            1.5230825543403625e-001 -1.4323100447654724e-001</leafValues></_>
        <_>
          <internalNodes>
            0 -1 336 -4.8405127599835396e-003</internalNodes>
          <leafValues>
            3.7430745363235474e-001 -5.9536729007959366e-002</leafValues></_>
        <_>
          <internalNodes>
            0 -1 82 2.8714555082842708e-004</internalNodes>
          <leafValues>
            1.0776526480913162e-001 -2.1309301257133484e-001</leafValues></_>
        <_>
          <internalNodes>
            0 -1 860 -9.2551676789298654e-004</internalNodes>
          <leafValues>
            2.3237068951129913e-001 -1.0341294109821320e-001</leafValues></_>
        <_>
          <internalNodes>
            0 -1 261 -4.2923213914036751e-003</internalNodes>
          <leafValues>
            -3.9463317394256592e-001 5.8102261275053024e-002</leafValues></_>
        <_>
          <internalNodes>
            0 -1 235 1.5494993422180414e-003</internalNodes>
          <leafValues>
            -8.5375234484672546e-002 2.8298795223236084e-001</leafValues></_>
        <_>
          <internalNodes>
            0 -1 92 -2.4371063336730003e-003</internalNodes>
          <leafValues>
            -2.8645190596580505e-001 9.1422080993652344e-002</leafValues></_>
        <_>
          <internalNodes>
            0 -1 397 3.8299653679132462e-003</internalNodes>
          <leafValues>
            -6.4287699759006500e-002 3.7560218572616577e-001</leafValues></_>
        <_>
          <internalNodes>
            0 -1 770 1.9421427277848125e-003</internalNodes>
          <leafValues>
            -6.7004710435867310e-002 3.2830232381820679e-001</leafValues></_>
        <_>
          <internalNodes>
            0 -1 508 -4.7714523971080780e-003</internalNodes>
          <leafValues>
            -3.7923711538314819e-001 6.2263865023851395e-002</leafValues></_>
        <_>
          <internalNodes>
            0 -1 858 -2.9724754858762026e-003</internalNodes>
          <leafValues>
            2.3867592215538025e-001 -9.8563492298126221e-002</leafValues></_>
        <_>
          <internalNodes>
            0 -1 155 5.4705976508557796e-003</internalNodes>
          <leafValues>
            -8.3155766129493713e-002 2.5612428784370422e-001</leafValues></_></weakClassifiers></_>
    <!-- stage 11 -->
    <_>
      <maxWeakCount>66</maxWeakCount>
      <stageThreshold>-8.4737026691436768e-001</stageThreshold>
      <weakClassifiers>
        <_>
          <internalNodes>
            0 -1 722 7.5707182288169861e-002</internalNodes>
          <leafValues>
            1.8020945787429810e-001 6.8980795145034790e-001</leafValues></_>
        <_>
          <internalNodes>
            0 -1 29 -4.4944949448108673e-002</internalNodes>
          <leafValues>
            3.8932219147682190e-001 -1.2261764705181122e-001</leafValues></_>
        <_>
          <internalNodes>
            0 -1 293 -1.6324946656823158e-002</internalNodes>
          <leafValues>
            3.0395227670669556e-001 -1.4204216003417969e-001</leafValues></_>
        <_>
          <internalNodes>
            0 -1 30 3.0936263501644135e-002</internalNodes>
          <leafValues>
            -1.5709865093231201e-001 3.3819258213043213e-001</leafValues></_>
        <_>
          <internalNodes>
            0 -1 144 -1.0789664834737778e-001</internalNodes>
          <leafValues>
            4.2613390088081360e-001 -6.1213463544845581e-002</leafValues></_>
        <_>
          <internalNodes>
            0 -1 904 3.9223372004926205e-004</internalNodes>
          <leafValues>
            8.6590759456157684e-002 -3.0099314451217651e-001</leafValues></_>
        <_>
          <internalNodes>
            0 -1 904 -4.7410407569259405e-004</internalNodes>
          <leafValues>
            -3.0845996737480164e-001 1.2719304859638214e-001</leafValues></_>
        <_>
          <internalNodes>
            0 -1 284 1.4901563525199890e-002</internalNodes>
          <leafValues>
            -9.5337480306625366e-002 3.2496196031570435e-001</leafValues></_>
        <_>
          <internalNodes>
            0 -1 683 6.2687322497367859e-002</internalNodes>
          <leafValues>
            -2.8470063582062721e-002 6.5818476676940918e-001</leafValues></_>
        <_>
          <internalNodes>
            0 -1 596 4.4235132634639740e-002</internalNodes>
          <leafValues>
            -1.1860488355159760e-001 2.1467798948287964e-001</leafValues></_>
        <_>
          <internalNodes>
            0 -1 702 -2.4444259703159332e-002</internalNodes>
          <leafValues>
            4.2028856277465820e-001 -6.8287141621112823e-002</leafValues></_>
        <_>
          <internalNodes>
            0 -1 306 -2.4605938233435154e-003</internalNodes>
          <leafValues>
            -3.0668351054191589e-001 8.4085628390312195e-002</leafValues></_>
        <_>
          <internalNodes>
            0 -1 90 5.4682325571775436e-004</internalNodes>
          <leafValues>
            8.8953770697116852e-002 -2.6850357651710510e-001</leafValues></_>
        <_>
          <internalNodes>
            0 -1 90 -1.8360788817517459e-004</internalNodes>
          <leafValues>
            -2.7798169851303101e-001 1.3918785750865936e-001</leafValues></_>
        <_>
          <internalNodes>
            0 -1 776 6.2042642384767532e-003</internalNodes>
          <leafValues>
            -5.9180803596973419e-002 4.5306229591369629e-001</leafValues></_>
        <_>
          <internalNodes>
            0 -1 154 -3.9753695018589497e-003</internalNodes>
          <leafValues>
            4.2449456453323364e-001 -5.3045053035020828e-002</leafValues></_>
        <_>
          <internalNodes>
            0 -1 637 1.2756745330989361e-002</internalNodes>
          <leafValues>
            -1.2846708297729492e-001 1.9211380183696747e-001</leafValues></_>
        <_>
          <internalNodes>
            0 -1 930 -2.4030965287238359e-003</internalNodes>
          <leafValues>
            2.9278653860092163e-001 -7.0517599582672119e-002</leafValues></_>
        <_>
          <internalNodes>
            0 -1 257 1.2713077664375305e-001</internalNodes>
          <leafValues>
            -1.4019061625003815e-001 1.5950086712837219e-001</leafValues></_>
        <_>
          <internalNodes>
            0 -1 76 5.3394311107695103e-003</internalNodes>
          <leafValues>
            -6.5378844738006592e-002 3.3838078379631042e-001</leafValues></_>
        <_>
          <internalNodes>
            0 -1 72 -7.5758835300803185e-003</internalNodes>
          <leafValues>
            2.4411131441593170e-001 -1.0814172029495239e-001</leafValues></_>
        <_>
          <internalNodes>
            0 -1 833 9.8879318684339523e-003</internalNodes>
          <leafValues>
            -6.0052867978811264e-002 3.5866507887840271e-001</leafValues></_>
        <_>
          <internalNodes>
            0 -1 730 1.9484110176563263e-002</internalNodes>
          <leafValues>
            -7.6637305319309235e-002 3.0068615078926086e-001</leafValues></_>
        <_>
          <internalNodes>
            0 -1 801 -4.2558178305625916e-002</internalNodes>
          <leafValues>
            3.6600038409233093e-001 -5.8763340115547180e-002</leafValues></_>
        <_>
          <internalNodes>
            0 -1 768 9.4831222668290138e-004</internalNodes>
          <leafValues>
            9.4310201704502106e-002 -2.5870212912559509e-001</leafValues></_>
        <_>
          <internalNodes>
            0 -1 620 -8.3944099023938179e-003</internalNodes>
          <leafValues>
            3.2935196161270142e-001 -6.7215502262115479e-002</leafValues></_>
        <_>
          <internalNodes>
            0 -1 935 -4.7204052098095417e-003</internalNodes>
          <leafValues>
            -3.6704766750335693e-001 6.3245423138141632e-002</leafValues></_>
        <_>
          <internalNodes>
            0 -1 402 1.0325794108211994e-002</internalNodes>
          <leafValues>
            -4.9987301230430603e-002 4.6732470393180847e-001</leafValues></_>
        <_>
          <internalNodes>
            0 -1 67 5.2051367238163948e-003</internalNodes>
          <leafValues>
            -5.4784685373306274e-002 3.7863260507583618e-001</leafValues></_>
        <_>
          <internalNodes>
            0 -1 814 4.4168857857584953e-003</internalNodes>
          <leafValues>
            -4.6687424182891846e-002 4.8596712946891785e-001</leafValues></_>
        <_>
          <internalNodes>
            0 -1 896 -2.8232368640601635e-003</internalNodes>
          <leafValues>
            2.0106336474418640e-001 -1.2607942521572113e-001</leafValues></_>
        <_>
          <internalNodes>
            0 -1 87 -3.6352215101942420e-004</internalNodes>
          <leafValues>
            -2.1500849723815918e-001 1.0482645779848099e-001</leafValues></_>
        <_>
          <internalNodes>
            0 -1 87 8.6690590251237154e-004</internalNodes>
          <leafValues>
            8.8372245430946350e-002 -2.8725868463516235e-001</leafValues></_>
        <_>
          <internalNodes>
            0 -1 633 2.3076791316270828e-002</internalNodes>
          <leafValues>
            -8.6963720619678497e-002 2.3208309710025787e-001</leafValues></_>
        <_>
          <internalNodes>
            0 -1 316 -9.3174904584884644e-002</internalNodes>
          <leafValues>
            4.9168598651885986e-001 -3.9387695491313934e-002</leafValues></_>
        <_>
          <internalNodes>
            0 -1 490 2.8628688305616379e-002</internalNodes>
          <leafValues>
            -1.0125317424535751e-001 2.0808938145637512e-001</leafValues></_>
        <_>
          <internalNodes>
            0 -1 519 2.8170194476842880e-002</internalNodes>
          <leafValues>
            4.0199067443609238e-002 -5.8425003290176392e-001</leafValues></_>
        <_>
          <internalNodes>
            0 -1 321 -1.5117782168090343e-002</internalNodes>
          <leafValues>
            1.8179832398891449e-001 -1.2688486278057098e-001</leafValues></_>
        <_>
          <internalNodes>
            0 -1 396 1.0641326196491718e-002</internalNodes>
          <leafValues>
            -7.2812288999557495e-002 3.0762025713920593e-001</leafValues></_>
        <_>
          <internalNodes>
            0 -1 871 -1.9617655780166388e-003</internalNodes>
          <leafValues>
            -3.4049323201179504e-001 7.0453442633152008e-002</leafValues></_>
        <_>
          <internalNodes>
            0 -1 413 -1.2454150244593620e-002</internalNodes>
          <leafValues>
            4.0029376745223999e-001 -5.7022109627723694e-002</leafValues></_>
        <_>
          <internalNodes>
            0 -1 550 -8.3628501743078232e-003</internalNodes>
          <leafValues>
            1.6380317509174347e-001 -1.4630167186260223e-001</leafValues></_>
        <_>
          <internalNodes>
            0 -1 298 -3.3577405847609043e-003</internalNodes>
          <leafValues>
            4.3012192845344543e-001 -4.6667814254760742e-002</leafValues></_>
        <_>
          <internalNodes>
            0 -1 466 -8.9260973036289215e-003</internalNodes>
          <leafValues>
            -6.1736726760864258e-001 3.6749575287103653e-002</leafValues></_>
        <_>
          <internalNodes>
            0 -1 276 3.2980232499539852e-003</internalNodes>
          <leafValues>
            -5.0563436001539230e-002 4.5403885841369629e-001</leafValues></_>
        <_>
          <internalNodes>
            0 -1 906 1.7226478084921837e-002</internalNodes>
          <leafValues>
            -9.4889782369136810e-002 2.2451697289943695e-001</leafValues></_>
        <_>
          <internalNodes>
            0 -1 932 -3.8760635070502758e-003</internalNodes>
          <leafValues>
            -3.8081327080726624e-001 5.8192282915115356e-002</leafValues></_>
        <_>
          <internalNodes>
            0 -1 246 4.7988560982048512e-003</internalNodes>
          <leafValues>
            -4.2685609310865402e-002 5.0989979505538940e-001</leafValues></_>
        <_>
          <internalNodes>
            0 -1 299 8.5291638970375061e-003</internalNodes>
          <leafValues>
            4.5392647385597229e-002 -5.3386878967285156e-001</leafValues></_>
        <_>
          <internalNodes>
            0 -1 497 9.2153344303369522e-003</internalNodes>
          <leafValues>
            3.5862699151039124e-002 -5.3725457191467285e-001</leafValues></_>
        <_>
          <internalNodes>
            0 -1 817 2.9060223605483770e-003</internalNodes>
          <leafValues>
            -6.0662392526865005e-002 3.6890166997909546e-001</leafValues></_>
        <_>
          <internalNodes>
            0 -1 377 6.0658298432826996e-002</internalNodes>
          <leafValues>
            -1.0251850634813309e-001 2.0738932490348816e-001</leafValues></_>
        <_>
          <internalNodes>
            0 -1 828 1.0973129421472549e-002</internalNodes>
          <leafValues>
            -6.8418137729167938e-002 3.0285367369651794e-001</leafValues></_>
        <_>
          <internalNodes>
            0 -1 759 -1.4029053272679448e-003</internalNodes>
          <leafValues>
            -2.7856743335723877e-001 8.2243829965591431e-002</leafValues></_>
        <_>
          <internalNodes>
            0 -1 169 2.1734148263931274e-001</internalNodes>
